svm_type one_class
kernel_type sigmoid
gamma 1.0
coef0 0.0
nr_class 2
total_sv 3
rho 0.23624349012970924
SV
1.0 1:-0.2264825770544846 2:0.16683501873212203 
1.0 1:-0.22598296981833654 2:0.16473002650983104 
1.0 1:-0.22898328190563644 2:0.15751510803202373 
