svm_type one_class
kernel_type sigmoid
gamma 1.0
coef0 0.0
nr_class 2
total_sv 4
rho 0.09443899411845706
SV
0.15436822312953322 1:0.2400000035762786 2:0.2400000035762786 
1.0 1:0.16000000238418577 2:0.08000000119209294 
0.8456317768704668 1:0.16000000238418577 2:-0.16000000238418577 
1.0 1:0.16000000238418577 2:-0.08000000119209294 
