svm_type one_class
kernel_type sigmoid
gamma 1.0
coef0 0.0
nr_class 2
total_sv 3
rho 0.20780018344521523
SV
1.0 1:0.20721850584444157 2:-0.13451883481936144 
1.0 1:0.21002432153376138 2:-0.16895370675691979 
1.0 1:0.23200237878348862 2:-0.12114900932200678 
