svm_type one_class
kernel_type sigmoid
gamma 1.0
coef0 0.0
nr_class 2
total_sv 9
rho 0.5503901373594999
SV
1.0 1:-0.18666666944821675 2:0.08000000119209294 
1.0 1:-0.18666666944821675 2:0.18666666944821675 
1.0 1:-0.2400000035762787 2:0.08000000119209294 
1.0 1:-0.18666666944821675 2:0.18666666944821675 
1.0 1:-0.2400000035762787 2:0.08000000119209294 
1.0 1:-0.2400000035762787 2:0.08000000119209294 
1.0 1:-0.21333333651224773 2:0.08000000119209294 
1.0 1:-0.18666666944821675 2:0.08000000119209294 
1.0 1:-0.18666666944821675 2:0.16000000238418577 
