svm_type one_class
kernel_type sigmoid
gamma 1.0
coef0 0.0
nr_class 2
total_sv 6
rho 0.49503403902053833
SV
1.0 1:-0.24307828554738908 2:0.15506408359060275 
1.0 1:-0.23944652023169122 2:0.16121744321835796 
1.0 1:-0.23694337533276266 2:0.16104998771066148 
1.0 1:-0.23362800449140553 2:0.16343806585737297 
1.0 1:-0.23016687254330404 2:0.16423495657887022 
1.0 1:-0.23431513089009492 2:0.16336518315555715 
