svm_type c_svc
kernel_type rbf
gamma 1.0
nr_class 6
total_sv 157
rho -0.04069644212722778 0.012617439031600952 0.014223456382751465 -0.04851788282394409 -0.0035967230796813965 -1.8617510795593262E-4 0.0082455575466156 -7.387101650238037E-4 0.05093592405319214 -0.02944877083481479 0.15302330784755266 8.806884288787842E-4 -0.005492568016052246 -0.0020624101161956787 -0.032797936502434934
label 0 1 2 3 4 5
nr_sv 30 30 27 21 28 21
SV
1.0 0.0 0.0 0.0 1.0 1:0.06082078005734404 2:0.25861540728692467 3:-0.16891055534580401 4:0.09323613639162498 
1.0 0.0 0.0 0.0 1.0 1:0.06411584442650098 2:0.2708786532923695 3:-0.1671268372257635 4:0.10604180672531682 
1.0 0.0 0.0 0.0 0.0 1:0.06569214416084002 2:0.27856623364723565 3:-0.16889805927933466 4:0.1152160054371657 
1.0 0.0 0.0 0.0 0.0 1:0.06588662444357751 2:0.28631347139692376 3:-0.16978431085202017 4:0.11989831627678593 
1.0 0.0 0.0 0.0 0.0 1:0.06817407808076148 2:0.2957119886752504 3:-0.1699620486266752 4:0.12258680412387135 
1.0 0.0 0.0 0.0 0.0 1:0.06840520816401796 2:0.29950026131999197 3:-0.16903535011920012 4:0.12526769373941649 
1.0 0.0 0.0 0.0 0.0 1:0.06752343855952614 2:0.29826654829705324 3:-0.16722829108133075 4:0.12794708886587358 
1.0 0.0 0.0 0.0 0.0 1:0.06681839967572323 2:0.2956799929935703 3:-0.16684941162387334 4:0.13489108605596933 
1.0 0.0 0.0 0.0 0.0 1:0.06198815261384438 2:0.29681033262344325 3:-0.16387945684406569 4:0.13511334717783174 
1.0 0.0 0.0 0.0 0.0 1:0.05652410233295957 2:0.29238170315578604 3:-0.16203696285386715 4:0.14169047199552132 
1.0 0.0 0.5742950854596536 0.0 0.0 1:0.05321939951118071 2:0.2888386618558767 3:-0.16002975583757828 4:0.14321880203296566 
1.0 0.0 1.0 0.0 0.0 1:0.05217553841763056 2:0.2838710201765049 3:-0.16055702874026878 4:0.14017516853255485 
1.0 0.0 1.0 0.0 0.0 1:0.05134046164497441 2:0.27669684713529774 3:-0.1593789664112315 4:0.14040674236040662 
1.0 0.0 1.0 0.0 0.0 1:0.05120569993218815 2:0.27042414404840276 3:-0.15896985748787495 4:0.13632533400653912 
1.0 1.0 1.0 0.0 0.0 1:0.04949790757003747 2:0.2648726829935344 3:-0.15704258307548513 4:0.12452695048385942 
1.0 0.6242733954140691 1.0 0.39893657083735795 0.0 1:0.052931665461737776 2:0.2636314882108153 3:-0.15870072621333264 4:0.11562153931910568 
1.0 0.0 0.0 1.0 1.0 1:0.05887866423239696 2:0.26210519295559886 3:-0.16109391269940587 4:0.1031638927945927 
1.0 0.0 0.0 1.0 1.0 1:0.062036268447652754 2:0.2624841557737798 3:-0.16140846914193607 4:0.08946446574114963 
1.0 0.0 0.0 1.0 1.0 1:0.06562901257266573 2:0.2611873312717006 3:-0.16486010513932092 4:0.08170491042831707 
1.0 0.0 0.0 1.0 1.0 1:0.06956987515478308 2:0.26068320039456716 3:-0.16228808416148166 4:0.07069726923989106 
1.0 0.0 0.0 1.0 1.0 1:0.07165589945371509 2:0.26027989508094707 3:-0.1602304685918452 4:0.06882448361880611 
1.0 0.0 0.0 1.0 1.0 1:0.07172471934225078 2:0.2610239179351963 3:-0.16178437454493344 4:0.06892625615754189 
1.0 0.0 0.0 1.0 1.0 1:0.0723131088255381 2:0.2637524678884293 3:-0.1582274998680233 4:0.0743410069085979 
1.0 0.0 0.0 1.0 1.0 1:0.07438382024584211 2:0.26700197443158324 3:-0.1548486670946443 4:0.08133947295513166 
1.0 0.0 0.0 1.0 1.0 1:0.07550705594799079 2:0.2674682468411451 3:-0.15321226742074 4:0.09173824531143715 
1.0 1.0 0.0 1.0 1.0 1:0.07213897829917415 2:0.2662412649583281 3:-0.1519031476749978 4:0.10379059649142663 
1.0 1.0 0.0 1.0 0.8537844213117276 1:0.06944451628258719 2:0.26579301270086964 3:-0.14712251860923542 4:0.11663247739545668 
1.0 1.0 1.0 1.0 0.0 1:0.06728894659386464 2:0.2622344109298711 3:-0.14383134868010516 4:0.12690598233142858 
1.0 1.0 1.0 1.0 0.0 1:0.06609782412897103 2:0.25725419615713974 3:-0.14173174606896732 4:0.13725811967162482 
1.0 1.0 1.0 1.0 0.0 1:0.06514492617083323 2:0.25593669100704686 3:-0.14111873058447755 4:0.1460731628569777 
-1.0 1.0 1.0 1.0 1.0 1:0.046713968678126716 2:0.23796888009810702 3:-0.07047286188727131 4:0.02143105879234275 
-1.0 1.0 1.0 1.0 1.0 1:0.05282568928332909 2:0.24956252934709888 3:-0.06758525242973568 4:0.013419818441275155 
-1.0 1.0 0.0 1.0 1.0 1:0.05399560311505547 2:0.26523990802535247 3:-0.06686691673909928 4:0.00540543489710954 
-1.0 0.0 0.0 1.0 1.0 1:0.05546155755837057 2:0.2761878569071383 3:-0.06629493578995183 4:5.547150532125844E-5 
-1.0 0.0 0.0 0.0 1.0 1:0.056633367191294415 2:0.2870796527399029 3:-0.06690317665857226 4:-0.011151524733278406 
-1.0 0.0 0.0 0.0 1.0 1:0.05810741166812117 2:0.29579410368055936 3:-0.06579030526988583 4:-0.01425346111857606 
-1.0 0.0 0.0 0.0 1.0 1:0.05981894622171002 2:0.30063346589746276 3:-0.0670326895160901 4:-0.015668949722843828 
-1.0 0.0 0.0 0.0 1.0 1:0.06012156149856984 2:0.29970689503365233 3:-0.06962607284188482 4:-0.020001055826513237 
-1.0 0.0 0.0 0.0 1.0 1:0.061963920705112696 2:0.29896526373075116 3:-0.0701008892185443 4:-0.017067236449503698 
-1.0 0.0 0.0 0.0 1.0 1:0.0639708069749052 2:0.2973054961694537 3:-0.072080635360941 4:-0.015253519740442978 
-1.0 0.0 0.0 0.0 1.0 1:0.059176808175562035 2:0.30184419350394265 3:-0.07419771201460001 4:-0.01220275330137377 
-1.0 0.0 0.0 0.0 1.0 1:0.055341501488368805 2:0.30280857258636273 3:-0.07322481060417607 4:-0.010828846333977404 
-1.0 0.0 0.0 0.0 1.0 1:0.05653988648905506 2:0.2993135995207654 3:-0.07137981330904819 4:-0.007596450397463483 
-1.0 0.0 0.0 0.0 1.0 1:0.05749856387095609 2:0.29705090502052967 3:-0.06990384998650301 4:-0.006610525171946824 
-1.0 0.0 0.0 0.0 1.0 1:0.05879882334211617 2:0.29417408314060656 3:-0.06872308853489806 4:0.007511524734067909 
-1.0 0.0 0.0 0.0 1.0 1:0.05877240510563253 2:0.29293928143788994 3:-0.06831180111317559 4:0.01720921380693352 
-1.0 0.0 0.0 0.4088522908437938 1.0 1:0.059817926757956275 2:0.2924847609518617 3:-0.06798277914474693 4:0.030300702325507745 
-1.0 0.0 0.0 1.0 1.0 1:0.060654338785745776 2:0.2921211426447141 3:-0.06878622784295374 4:0.04397388416658621 
-1.0 0.0 0.0 1.0 0.0 1:0.05705680904071864 2:0.29236357750123165 3:-0.06942898236448003 4:0.04851244368517149 
-1.0 0.0 0.1066611092674858 1.0 0.0 1:0.05577878165061556 2:0.2936241928194996 3:-0.07047652067619636 4:0.056943289300233735 
-1.0 0.0 1.0 1.0 0.0 1:0.05582302457550081 2:0.29143269011850603 3:-0.07238121753080584 4:0.06635463146530207 
-1.0 1.0 1.0 1.0 0.0 1:0.0606584183838792 2:0.28967948644368136 3:-0.07390497403421992 4:0.0733503702361854 
-1.0 1.0 1.0 1.0 0.0 1:0.05972673524466843 2:0.28827692368168356 3:-0.07779064542755898 4:0.078946961373775 
-1.0 1.0 1.0 1.0 0.0 1:0.058981388310338834 2:0.28662153991867445 3:-0.08036584970997096 4:0.08395756707529123 
-1.0 1.0 1.0 1.0 0.0 1:0.06318511070519273 2:0.28529723279851793 3:-0.08082601327736216 4:0.07676605365293698 
-1.0 0.6227704743876155 1.0 1.0 0.0 1:0.06281475555236571 2:0.2826377871494623 3:-0.08066081074825504 4:0.06674617623139978 
-1.0 0.0 0.0 1.0 0.0 1:0.06305180473175698 2:0.28264356390846257 3:-0.080528648823054 4:0.05659694123085324 
-1.0 0.0 0.0 1.0 1.0 1:0.06804144407295276 2:0.28478151866188717 3:-0.07882291931016538 4:0.046344219789569485 
-1.0 0.0 0.0 1.0 1.0 1:0.07203315549344702 2:0.28969188248587896 3:-0.07799166898467591 4:0.03867537585623171 
-1.0 0.0 0.0 1.0 1.0 1:0.07415985795210167 2:0.2920201735507135 3:-0.0773266687478934 4:0.03147363408037929 
-0.0 -0.0 1.0 0.0 0.0 1:0.0012376987690945196 2:-0.02197366432880954 3:0.14290226675420503 4:0.1303841066050827 
-0.0 -0.6227704743876155 1.0 1.0 0.0 1:0.007915328073327288 2:-0.017052255836673136 3:0.14098556988643707 4:0.1347054782670276 
-1.0 -1.0 1.0 1.0 1.0 1:0.01378641128665492 2:-0.012044906792592625 3:0.13945426086688506 4:0.13869365483820784 
-1.0 -1.0 1.0 1.0 0.991851638431443 1:0.018493665785193292 2:-0.008571643807241847 3:0.1440921992607156 4:0.14241751976944772 
-0.6242733954140691 -1.0 0.0 1.0 0.0 1:0.02172779930306279 2:-0.007925973629464012 3:0.14513780261466225 4:0.1443336344708921 
-1.0 -1.0 0.19495636874752295 1.0 1.0 1:0.024845992670499695 2:-0.007407848911139103 3:0.14171237586578755 4:0.14533272898437466 
-1.0 -1.0 0.0 1.0 1.0 1:0.0268095756369372 2:-0.0069937380909456115 3:0.1432368725834885 4:0.14613266543227843 
-1.0 -1.0 1.0 1.0 1.0 1:0.0246487163910164 2:-0.007195594853714904 3:0.141790050574916 4:0.14517295972982647 
-1.0 -1.0 0.0 1.0 0.0 1:0.02291911792212986 2:-0.010022782834548272 3:0.14276542422332628 4:0.14547153875464258 
-0.0 -0.0 0.0 1.0 0.0 1:0.025801710836094505 2:-0.011218167576964921 3:0.1483458556556818 4:0.1462438072810215 
-0.0 -0.0 0.0 1.0 0.0 1:0.023308046891854173 2:-0.011641194679835043 3:0.15547663496645103 4:0.14472837897961477 
-0.0 -0.0 0.0 1.0 0.0 1:0.018113119445341996 2:-0.010379611759913532 3:0.1617145064864951 4:0.14298274807333222 
-0.0 -0.0 0.0 1.0 0.0 1:0.0176904270047763 2:-0.011503633426522608 3:0.16457151054550612 4:0.1431862034909115 
-0.0 -0.0 0.0 1.0 0.0 1:0.013085697953082231 2:-0.011336214680965684 3:0.1631238940356412 4:0.14228229472025922 
-0.0 -0.0 0.0 0.07712731819168817 0.0 1:0.005668577351418125 2:-0.0064023213674551105 3:0.16623243114552344 4:0.14155918114748767 
-0.0 -0.0 1.0 0.0 0.0 1:-0.001492110437033456 2:-2.5748920983947876E-4 3:0.16526875267168617 4:0.1433978770110218 
-0.0 -0.0 1.0 0.0 0.0 1:-0.00919367827351536 2:0.0024606706437041437 3:0.17008166227358512 4:0.1435183016147744 
-0.0 -0.0 1.0 0.0 0.0 1:-0.01108827533364376 2:0.004635202585486886 3:0.17233199074767702 4:0.14308130763886795 
-0.0 -0.0 1.0 0.0 0.0 1:-0.014203949583770359 2:0.006374827490410295 3:0.16826559636463245 4:0.14273171410270769 
-0.0 -0.0 1.0 0.0 0.0 1:-0.017229825240295704 2:0.007233194329512416 3:0.16981247988808434 4:0.1429853711235195 
-0.0 -0.0 1.0 0.0 0.0 1:-0.01645052761306609 2:0.006853222370725942 3:0.17318331844350887 4:0.14318829709769376 
-0.0 -0.0 1.0 0.0 0.0 1:-0.017960421674619642 2:0.006549244248107322 3:0.1812133216119478 4:0.14335063829834715 
-0.0 -0.0 1.0 0.0 0.0 1:-0.01863500373859739 2:0.005772728431023277 3:0.18657065753801239 4:0.14348051086463376 
-0.0 -0.0 1.0 0.0 0.0 1:-0.019174669956481982 2:0.005151516177999471 3:0.18765652666392496 4:0.1430510757660386 
-0.0 -0.0 0.13338306162632532 0.0 0.0 1:-0.016939735956050805 2:0.0030545463716757926 3:0.19012522176629387 4:0.1432408610616318 
-0.0 -0.0 1.0 0.0 0.0 1:-0.015641431104622794 2:0.0014215763309162188 3:0.1864268094733731 4:0.14266081857265012 
-0.0 -0.0 1.0 0.0 0.0 1:-0.014113144901491292 2:0.0016705944299597597 3:0.1843414480655453 4:0.1423953219296027 
-0.0 -0.0 -1.0 0.0 1.0 1:-0.15272044822477304 2:0.07009950527375008 3:0.007046152141675366 4:0.2509147834086405 
-1.0 -1.0 -1.0 0.0 0.0 1:-0.15097632253403215 2:0.07687094858853571 3:0.01096281404591315 4:0.2556646744513069 
-0.5742950854596536 -0.1066611092674858 -1.0 0.0 0.0 1:-0.14958108628238642 2:0.0801613290762967 3:0.014629263442821783 4:0.2600015576627308 
-0.0 -0.0 -0.3283394303738483 0.0 0.0 1:-0.14846722239359977 2:0.08332682464938757 3:0.017572641488606155 4:0.26559476155868844 
-1.0 -0.0 -0.0 0.0 0.0 1:-0.1479005487046573 2:0.08922993289764747 3:0.012744803810005534 4:0.2741513606590773 
-1.0 -1.0 -0.0 0.0 0.0 1:-0.1465870928326345 2:0.08951727906776241 3:0.011262475352165735 4:0.2715877972801508 
-1.0 -1.0 -0.0 1.0 0.0 1:-0.14553636189250885 2:0.08921381806331519 3:0.012743377963727154 4:0.26900353379905084 
-1.0 -1.0 -0.0 1.0 0.0 1:-0.1452290853435011 2:0.08630440598751388 3:0.014461374268446514 4:0.26586950040528645 
-1.0 -1.0 -1.0 1.0 0.040743120274052025 1:-0.14444992885338837 2:0.08397686092221057 3:0.01690242391123642 4:0.2617622908780748 
-1.0 -1.0 -1.0 1.0 1.0 1:-0.14329327974374673 2:0.0826481537507412 3:0.020455287602447858 4:0.2595431638775261 
-1.0 -1.0 -1.0 1.0 1.0 1:-0.1418346252827728 2:0.08158518575566176 3:0.023297566488312382 4:0.25936786890243235 
-0.0 -1.0 -1.0 1.0 1.0 1:-0.1412010340841704 2:0.07700148403127804 3:0.027704715297352966 4:0.2544276364295781 
-0.0 -0.0 -1.0 1.0 0.0 1:-0.14122749669605017 2:0.07386785355792214 3:0.03816376739703753 4:0.2542087782317968 
-0.0 -0.0 -1.0 0.2686932055622385 0.0 1:-0.14284866502885507 2:0.07242761635330741 3:0.03959768143676423 4:0.26043368886348195 
-0.0 -0.0 -1.0 0.0 0.0 1:-0.1452122654703648 2:0.07127542759451966 3:0.04074481074028169 4:0.2627469514823513 
-0.0 -0.0 -1.0 0.0 0.0 1:-0.14923647919512517 2:0.07195367616445902 3:0.04272918058761266 4:0.2608642290903658 
-0.0 -0.0 -1.0 0.0 0.0 1:-0.15298918398230454 2:0.07302960813644976 3:0.04165001176398997 4:0.26469138364872524 
-0.0 -0.0 -1.0 0.0 0.0 1:-0.15545801432131412 2:0.07549035352269184 3:0.04132000940699598 4:0.26295310764212254 
-0.0 -0.0 -1.0 0.0 0.0 1:-0.16009974521803405 2:0.0774589497236925 3:0.04052267410405208 4:0.2631624869411582 
-0.0 -0.0 -1.0 0.0 0.0 1:-0.16274646333461718 2:0.07636716000507626 3:0.03828480619957719 4:0.2675966569496373 
-0.0 -0.0 -1.0 0.0 0.0 1:-0.16539717113338515 2:0.07762706158085397 3:0.03702784504312229 4:0.2647439930404225 
-0.0 -0.0 -0.3293916181234576 -0.0 1.0 1:0.23624899104319863 2:0.09972735890102036 3:0.08950623766373433 4:-0.005647427110613168 
-0.0 -0.0 -1.0 -0.0 0.0 1:0.23860583720647854 2:0.10163507322494925 3:0.1083702922691181 4:-0.006112814979212122 
-0.0 -0.0 -1.0 -0.0 0.0 1:0.24314714106892343 2:0.10584455343213794 3:0.11761379823242757 4:-0.004888848728739403 
-0.0 -0.0 -1.0 -0.0 0.0 1:0.24571034555083693 2:0.10974259658178143 3:0.12608250865633397 4:8.848968005218394E-4 
-0.0 -0.0 -1.0 -0.0 0.0 1:0.2472332791298988 2:0.11126179355293686 3:0.1291271966230696 4:0.003906350793184021 
-0.0 -0.0 -1.0 -0.0 0.0 1:0.24100326167026975 2:0.11472792921762653 3:0.11912326431373854 4:0.009006367819276773 
-0.0 -0.0 -1.0 -0.0 0.0 1:0.23920290924730625 2:0.11684861406261049 3:0.11769839098466606 4:0.00933859315205543 
-0.0 -0.0 -0.0 -0.0 0.1559193077527257 1:0.23852982891335284 2:0.1302493759312111 3:0.1021000656875295 4:0.012803276573123523 
-0.0 -0.0 -0.0 -0.0 1.0 1:0.23775716690605475 2:0.13513267410797503 3:0.09554675672838175 4:0.015575923537507808 
-0.0 -0.0 -0.0 -0.0 1.0 1:0.23393916483281374 2:0.13957259113806963 3:0.08550424479221708 4:0.01886067236202882 
-0.0 -0.4088522908437938 -0.0 -0.0 1.0 1:0.22821805822179275 2:0.14099147450013805 3:0.07693674192939426 4:0.020955161994191007 
-0.0 -1.0 -0.0 -0.0 1.0 1:0.2231077532621808 2:0.1442598731074789 3:0.07061613625093499 4:0.024230805028867763 
-0.0 -1.0 -0.0 -0.0 1.0 1:0.21955289134878386 2:0.1474078959448223 3:0.06609293279734552 4:0.03165130288076812 
-0.39893657083735795 -1.0 -0.0 -0.0 1.0 1:0.21777566087415745 2:0.14885964892627102 3:0.061940999231476335 4:0.04132103698895906 
-1.0 -1.0 -0.0 -0.0 1.0 1:0.2227538514777323 2:0.1500210415428892 3:0.04955282251802917 4:0.0522568325460544 
-1.0 -1.0 -0.0 -0.0 1.0 1:0.22193641820292398 2:0.15361681943065342 3:0.0433756039821811 4:0.06153879557763042 
-1.0 -1.0 -0.0 -0.0 1.0 1:0.2196824674273683 2:0.149026792248676 3:0.03896715293003683 4:0.07323103341887205 
-1.0 -1.0 -0.0 -0.0 1.0 1:0.21254597771507555 2:0.148021434951638 3:0.03437372054040788 4:0.08578482411184818 
-1.0 -1.0 -0.0 -0.0 0.0 1:0.21323678461351747 2:0.14828381466089868 3:0.024298977927055043 4:0.0990278580679167 
-1.0 -1.0 -1.0 -0.0 0.0 1:0.21112276276901465 2:0.14849371748324436 3:0.019439182937494803 4:0.11015561854444555 
-1.0 -1.0 -1.0 -0.2686932055622385 0.0 1:0.21316487735967327 2:0.14706164162436075 3:0.014484679086092744 4:0.12279116004453938 
-1.0 -1.0 -1.0 -1.0 0.0 1:0.21533190155443993 2:0.14431598097491216 3:0.006254410665011867 4:0.1334329275256907 
-1.0 -1.0 -1.0 -1.0 0.0 1:0.21279885503959917 2:0.1426527854332018 3:-0.0013964710253373536 4:0.13821300870952036 
-1.0 -1.0 -0.0 -1.0 0.0 1:0.21557241801468496 2:0.14505556219834936 3:-0.008050510108173814 4:0.14150374061192428 
-1.0 -1.0 -1.0 -1.0 0.0 1:0.21139126852817292 2:0.1469777834762478 3:-0.012307074892590086 4:0.1446696596660385 
-1.0 -1.0 -1.0 -1.0 0.0 1:0.2069796821403087 2:0.1458488938784337 3:-0.02211232663266094 4:0.1472023947515434 
-1.0 -1.0 -0.7477357000682306 -1.0 0.0 1:0.203983746278539 2:0.1513457822382347 3:-0.02728986137531142 4:0.14762858287962366 
-1.0 -1.0 -0.0 -1.0 0.43152588249646684 1:0.20958699765912825 2:0.1573432929950236 3:-0.029831889205964357 4:0.14850286674468305 
-1.0 -1.0 -0.0 -0.040743120274052025 -1.0 1:0.14124229931947796 2:0.2680519635185774 3:-0.09620405100118401 4:-0.13580372191377799 
-1.0 -1.0 -1.0 -1.0 -1.0 1:0.14126068873326747 2:0.27043292210296577 3:-0.09402991091831325 4:-0.13105469698775674 
-1.0 -1.0 -1.0 -1.0 -1.0 1:0.14180464588236252 2:0.2696716494883842 3:-0.09016083665743335 4:-0.1315121935490594 
-1.0 -1.0 -1.0 -1.0 -1.0 1:0.14011017962586203 2:0.26853644244059915 3:-0.08866273030955751 4:-0.13614204811463726 
-1.0 -1.0 -0.991851638431443 -1.0 -1.0 1:0.13608984527259793 2:0.2681623192722331 3:-0.08853092902697113 4:-0.14038082034758959 
-1.0 -1.0 -1.0 -0.0 -1.0 1:0.13500548942475143 2:0.2657291386621996 3:-0.08629313569309682 4:-0.14483929607627966 
-1.0 -1.0 -0.0 -0.0 -1.0 1:0.13360456205673477 2:0.26165048301884375 3:-0.08663490490464787 4:-0.15373798337777977 
-1.0 -1.0 -0.0 -0.0 -1.0 1:0.1324835694828721 2:0.2578540746076925 3:-0.09010782741047896 4:-0.1640567889134179 
-1.0 -1.0 -0.0 -0.0 -1.0 1:0.13212010212660508 2:0.2548164998498017 3:-0.09128641857593722 4:-0.16911202294615435 
-1.0 -1.0 -0.0 -0.0 -1.0 1:0.12969623256148455 2:0.24918668907313135 3:-0.09276243549885188 4:-0.17422265129388614 
-1.0 -1.0 -0.0 -0.0 -0.0 1:0.12989033501031622 2:0.2452162972090881 3:-0.0955431509304987 4:-0.17991129017156904 
-1.0 -1.0 -0.0 -0.0 -0.0 1:0.12791231422808658 2:0.24363975557365425 3:-0.09403450485627862 4:-0.18339550933022253 
-0.8537844213117276 -1.0 -0.0 -0.0 -0.0 1:0.12526320478635 2:0.24664507096536625 3:-0.09176089631276496 4:-0.18511630836835857 
-0.0 -1.0 -0.0 -0.0 -0.0 1:0.1252772362919704 2:0.2495827295277795 3:-0.08727537011142739 4:-0.18649302002475787 
-0.0 -1.0 -0.0 -0.0 -0.0 1:0.12795511231464296 2:0.25459954308896426 3:-0.08208697139190879 4:-0.18652773455313343 
-0.0 -1.0 -0.0 -0.0 -0.0 1:0.12796409387119556 2:0.25914629985256443 3:-0.07793624195701332 4:-0.18602218427436257 
-0.0 -1.0 -0.0 -0.0 -0.5874451902491927 1:0.1290379423759389 2:0.2606503753937972 3:-0.07408232668739012 4:-0.18508442350158005 
-0.0 -1.0 -0.0 -0.0 -1.0 1:0.13096368610968345 2:0.2677203017633536 3:-0.07046586861657667 4:-0.18326755255696703 
-0.0 -1.0 -0.0 -0.0 -0.0 1:0.1314376164233334 2:0.27764290638007005 3:-0.06810603220025846 4:-0.1871473770441907 
-0.0 -1.0 -0.0 -0.0 -0.0 1:0.13128342653330016 2:0.2839809885231144 3:-0.06781816137975649 4:-0.1934512341286484 
-0.0 -1.0 -0.0 -0.0 -0.0 1:0.13062674261563967 2:0.2863847908350081 3:-0.06865453169990654 4:-0.19849432201994321 
