svm_type c_svc
kernel_type rbf
gamma 1.0
nr_class 6
total_sv 166
rho 0.12815675139427185 -0.2620970871736951 -0.18016373805551722 0.022463543982371513 0.08404073119163513 -0.4011699380773371 -0.12082522857081282 0.22622367739677451 0.00648912787437439 0.3246784641723535 0.28723613664873354 -0.045318899600456077 -0.1458706471110331 0.005577797862864034 -0.23808725783256535
label 0 1 2 3 4 5
nr_sv 30 30 27 27 29 23
SV
1.0 0.0 0.0 0.0 1.0 1:0.02666666706403098 2:0.2400000035762786 3:-0.2400000035762787 4:0.08000000119209294 
1.0 1.0 1.0 1.0 0.0 1:0.0 2:0.4000000059604645 3:0.05333333412806196 4:0.4000000059604645 
1.0 0.0 0.0 0.0 1.0 1:0.08000000119209294 2:0.2400000035762786 3:-0.29333333770434067 4:-0.08000000119209294 
1.0 0.0 1.0 0.0 1.0 1:0.0 2:0.2400000035762786 3:-0.18666666944821675 4:0.10666666825612381 
0.9875378211626051 0.0 0.0 0.5405208627050485 0.0 1:0.10666666825612381 2:0.4000000059604645 3:-0.21333333651224773 4:0.3466666718324025 
1.0 1.0 1.0 1.0 1.0 1:0.02666666706403098 2:0.18666666944821675 3:0.0 4:-0.02666666706403098 
1.0 0.0 1.0 0.0 0.0 1:0.0 2:0.2400000035762786 3:-0.18666666944821675 4:0.2400000035762786 
0.0 0.0 1.0 1.0 0.0 1:0.10666666825612381 2:0.2666666706403096 3:-0.2400000035762787 4:0.42666667302449546 
1.0 1.0 0.5647525603763562 1.0 1.0 1:-0.05333333412806196 2:0.3733333388964335 3:0.0 4:-0.05333333412806196 
0.0 0.853311694652708 1.0 1.0 0.0 1:0.05333333412806196 2:0.16000000238418577 3:-0.2400000035762787 4:0.2400000035762786 
1.0 0.0 0.0 1.0 1.0 1:0.08000000119209294 2:0.2400000035762786 3:-0.21333333651224773 4:-0.10666666825612381 
1.0 1.0 0.28594897767309313 1.0 1.0 1:0.08000000119209294 2:0.29333333770434056 3:-0.05333333412806196 4:0.18666666944821675 
1.0 1.0 1.0 1.0 1.0 1:0.08000000119209294 2:0.08000000119209294 3:-0.21333333651224773 4:0.05333333412806196 
1.0 0.0 0.0 1.0 1.0 1:0.02666666706403098 2:0.21333333651224762 3:-0.21333333651224773 4:-0.10666666825612381 
1.0 0.0 0.0 0.689927733926002 1.0 1:0.02666666706403098 2:0.3733333388964335 3:-0.1333333353201548 4:-0.08000000119209294 
1.0 0.0 0.0 1.0 1.0 1:0.2666666706403096 2:0.3466666718324025 3:-0.16000000238418577 4:0.0 
1.0 0.0 0.0 1.0 1.0 1:0.16000000238418577 2:0.21333333651224762 3:-0.2400000035762787 4:-0.02666666706403098 
1.0 0.0 0.0 0.0 0.0 1:0.02666666706403098 2:0.3466666718324025 3:-0.16000000238418577 4:0.2400000035762786 
1.0 0.0 0.0 0.0 1.0 1:0.0 2:0.29333333770434056 3:-0.16000000238418577 4:0.10666666825612381 
1.0 1.0 1.0 1.0 1.0 1:0.10666666825612381 2:0.18666666944821675 3:0.02666666706403098 4:0.0 
1.0 0.0 1.0 0.0 0.0 1:0.02666666706403098 2:0.2400000035762786 3:-0.21333333651224773 4:0.2400000035762786 
1.0 0.0 1.0 0.0 0.0 1:0.0 2:0.3466666718324025 3:-0.21333333651224773 4:0.2666666706403096 
1.0 1.0 1.0 1.0 0.0 1:0.10666666825612381 2:0.18666666944821675 3:0.02666666706403098 4:0.32000000476837154 
1.0 0.0 0.0 1.0 1.0 1:0.10666666825612381 2:0.2666666706403096 3:-0.18666666944821675 4:0.02666666706403098 
1.0 0.0 1.0 0.0 0.0 1:0.0 2:0.2666666706403096 3:-0.18666666944821675 4:0.16000000238418577 
1.0 0.0 0.0 1.0 0.0 1:0.05333333412806196 2:0.2666666706403096 3:-0.16000000238418577 4:0.18666666944821675 
1.0 1.0 0.0 1.0 1.0 1:0.16000000238418577 2:0.2400000035762786 3:-0.05333333412806196 4:0.1333333353201548 
1.0 1.0 1.0 1.0 0.0 1:0.02666666706403098 2:0.18666666944821675 3:-0.18666666944821675 4:0.2400000035762786 
1.0 1.0 1.0 1.0 0.0 1:0.02666666706403098 2:0.18666666944821675 3:-0.18666666944821675 4:0.21333333651224762 
1.0 0.7182449265948434 0.0 1.0 1.0 1:0.10666666825612381 2:0.32000000476837154 3:-0.02666666706403098 4:0.02666666706403098 
-1.0 0.46317646272577534 0.0 1.0 1.0 1:0.29333333770434056 2:0.21333333651224762 3:-0.02666666706403098 4:-0.10666666825612381 
-1.0 0.0 0.0 0.0 1.0 1:0.0 2:0.3466666718324025 3:-0.1333333353201548 4:-0.05333333412806196 
-0.0 0.0 0.0 0.0 1.0 1:0.02666666706403098 2:0.5333333412806194 3:-0.05333333412806196 4:-0.10666666825612381 
-1.0 0.0 1.0 1.0 1.0 1:0.0 2:0.2400000035762786 3:-0.1333333353201548 4:-0.02666666706403098 
-1.0 0.0 0.0 0.0 1.0 1:0.0 2:0.32000000476837154 3:-0.10666666825612381 4:-0.10666666825612381 
-1.0 1.0 0.0 1.0 0.0 1:0.2400000035762786 2:0.2666666706403096 3:-0.02666666706403098 4:0.18666666944821675 
-1.0 1.0 1.0 1.0 1.0 1:0.0 2:0.21333333651224762 3:-0.1333333353201548 4:0.02666666706403098 
-1.0 0.0 0.0 0.6461957049331077 1.0 1:0.0 2:0.2666666706403096 3:-0.08000000119209294 4:-0.10666666825612381 
-1.0 1.0 1.0 1.0 0.0 1:0.18666666944821675 2:0.21333333651224762 3:0.0 4:0.2400000035762786 
-1.0 0.0 1.0 0.0 1.0 1:-0.02666666706403098 2:0.29333333770434056 3:-0.10666666825612381 4:-0.02666666706403098 
-1.0 0.0 0.0 0.0 1.0 1:-0.02666666706403098 2:0.5066666742165884 3:-0.05333333412806196 4:-0.02666666706403098 
-0.9875378211626051 1.0 1.0 1.0 1.0 1:0.0 2:0.21333333651224762 3:0.0 4:-0.10666666825612381 
-1.0 0.0 0.0 1.0 1.0 1:0.2400000035762786 2:0.32000000476837154 3:0.0 4:0.0 
-1.0 0.0 0.0 0.0 1.0 1:0.0 2:0.2666666706403096 3:-0.1333333353201548 4:-0.10666666825612381 
-1.0 1.0 1.0 1.0 0.0 1:0.02666666706403098 2:0.2666666706403096 3:-0.10666666825612381 4:0.5600000083446504 
-1.0 0.0 0.0 1.0 1.0 1:0.18666666944821675 2:0.32000000476837154 3:-0.05333333412806196 4:0.10666666825612381 
-1.0 1.0 1.0 1.0 0.0 1:0.05333333412806196 2:0.2400000035762786 3:-0.1333333353201548 4:0.29333333770434056 
-1.0 0.0 1.0 1.0 1.0 1:0.0 2:0.2666666706403096 3:-0.1333333353201548 4:0.05333333412806196 
-1.0 1.0 1.0 1.0 1.0 1:-0.02666666706403098 2:0.2400000035762786 3:0.0 4:-0.08000000119209294 
-1.0 0.0 1.0 1.0 0.0 1:0.05333333412806196 2:0.3466666718324025 3:-0.1333333353201548 4:0.21333333651224762 
-1.0 0.0 1.0 1.0 0.0 1:0.02666666706403098 2:0.3466666718324025 3:-0.10666666825612381 4:0.10666666825612381 
-0.0 1.0 0.0 1.0 1.0 1:0.2400000035762786 2:0.21333333651224762 3:0.0 4:-0.1333333353201548 
-1.0 0.0 0.0 0.0 1.0 1:0.0 2:0.32000000476837154 3:-0.1333333353201548 4:0.0 
-1.0 0.8124883256680187 0.0 1.0 1.0 1:0.0 2:0.2400000035762786 3:-0.10666666825612381 4:-0.08000000119209294 
-1.0 0.0 0.0 1.0 1.0 1:0.2666666706403096 2:0.2666666706403096 3:-0.02666666706403098 4:0.0 
-1.0 1.0 0.16504303104793613 1.0 1.0 1:0.0 2:0.2400000035762786 3:-0.02666666706403098 4:-0.10666666825612381 
-1.0 0.0 0.028341287523025567 1.0 0.0 1:0.08000000119209294 2:0.3466666718324025 3:-0.1333333353201548 4:0.18666666944821675 
-1.0 0.0 0.0 1.0 1.0 1:0.2400000035762786 2:0.3733333388964335 3:-0.05333333412806196 4:-0.05333333412806196 
-1.0 0.0 0.0 0.0 1.0 1:-0.02666666706403098 2:0.4000000059604645 3:-0.02666666706403098 4:-0.05333333412806196 
-1.0 1.0 1.0 1.0 0.0 1:0.0 2:0.2666666706403096 3:-0.1333333353201548 4:0.16000000238418577 
-1.0 -1.0 0.4532390659365829 1.0 1.0 1:0.1333333353201548 2:-0.02666666706403098 3:0.02666666706403098 4:0.18666666944821675 
-1.0 -1.0 1.0 1.0 0.0 1:0.02666666706403098 2:0.0 3:0.05333333412806196 4:0.18666666944821675 
-1.0 -1.0 1.0 1.0 0.0 1:-0.08000000119209294 2:0.05333333412806196 3:0.16000000238418577 4:0.10666666825612381 
-0.0 -0.0 0.0 1.0 0.0 1:0.18666666944821675 2:-0.05333333412806196 3:0.3466666718324025 4:0.1333333353201548 
-0.0 -0.0 1.0 0.0 0.0 1:0.02666666706403098 2:-0.1333333353201548 3:0.05333333412806196 4:0.18666666944821675 
-0.0 -0.47576960967746773 1.0 0.10564903695042446 0.5397218188443093 1:-0.10666666825612381 2:0.05333333412806196 3:0.18666666944821675 4:0.08000000119209294 
-0.0 -0.0 0.0 1.0 0.0 1:0.16000000238418577 2:-0.05333333412806196 3:0.2400000035762786 4:0.18666666944821675 
-1.0 -1.0 0.34749665659256257 1.0 1.0 1:0.05333333412806196 2:-0.02666666706403098 3:0.05333333412806196 4:0.10666666825612381 
-0.5715566212475512 -0.0 1.0 0.0 0.0 1:-0.1333333353201548 2:0.05333333412806196 3:0.16000000238418577 4:0.1333333353201548 
-0.0 -0.0 1.0 0.0 0.0 1:-0.10666666825612381 2:0.0 3:0.16000000238418577 4:0.08000000119209294 
-1.0 -1.0 1.0 1.0 1.0 1:-0.1333333353201548 2:0.08000000119209294 3:0.08000000119209294 4:0.16000000238418577 
-1.0 -1.0 0.0 1.0 0.0 1:0.10666666825612381 2:-0.05333333412806196 3:0.05333333412806196 4:0.18666666944821675 
-0.0 -0.0 1.0 1.0 0.09189474777723382 1:-0.02666666706403098 2:0.0 3:0.16000000238418577 4:0.08000000119209294 
-0.0 -0.0 1.0 0.0 0.0 1:-0.16000000238418577 2:0.10666666825612381 3:0.2666666706403096 4:0.18666666944821675 
-1.0 -1.0 1.0 1.0 1.0 1:0.08000000119209294 2:0.02666666706403098 3:0.08000000119209294 4:0.16000000238418577 
-0.0 -0.0 1.0 0.0 0.0 1:0.0 2:-0.05333333412806196 3:0.16000000238418577 4:0.18666666944821675 
-0.0 -0.0 1.0 0.0 0.0 1:-0.1333333353201548 2:0.0 3:0.3466666718324025 4:0.08000000119209294 
-1.0 -1.0 1.0 1.0 1.0 1:0.08000000119209294 2:0.05333333412806196 3:0.08000000119209294 4:0.10666666825612381 
-0.0 -0.0 1.0 1.0 0.0 1:0.02666666706403098 2:-0.02666666706403098 3:0.1333333353201548 4:0.18666666944821675 
-0.0 -0.0 1.0 0.0 0.0 1:-0.1333333353201548 2:-0.02666666706403098 3:0.4000000059604645 4:0.10666666825612381 
-0.0 -0.0 1.0 1.0 0.0 1:0.02666666706403098 2:0.02666666706403098 3:0.18666666944821675 4:0.16000000238418577 
-0.0 -0.7998951787163261 1.0 1.0 1.0 1:0.0 2:-0.02666666706403098 3:0.10666666825612381 4:0.08000000119209294 
-1.0 -1.0 1.0 1.0 0.06252263328343957 1:-0.16000000238418577 2:0.10666666825612381 3:0.10666666825612381 4:0.16000000238418577 
-0.0 -0.0 0.0 1.0 0.0 1:0.21333333651224762 2:-0.05333333412806196 3:0.16000000238418577 4:0.18666666944821675 
-1.0 -0.0 1.0 1.0 0.0 1:-0.05333333412806196 2:0.0 3:0.10666666825612381 4:0.1333333353201548 
-0.0 -0.0 1.0 0.0 0.0 1:-0.1333333353201548 2:-0.02666666706403098 3:0.08000000119209294 4:0.1333333353201548 
-1.0 -1.0 0.0 1.0 1.0 1:0.1333333353201548 2:0.10666666825612381 3:0.16000000238418577 4:0.08000000119209294 
-0.0 -0.0 -1.0 0.0 0.0 1:-0.2400000035762787 2:0.05333333412806196 3:0.21333333651224762 4:0.16000000238418577 
-1.0 -1.0 -0.0 1.0 0.0 1:-0.08000000119209294 2:0.18666666944821675 3:-0.10666666825612381 4:0.4000000059604645 
-0.0 -0.0 -1.0 0.0 0.0 1:-0.16000000238418577 2:0.02666666706403098 3:0.0 4:0.32000000476837154 
-0.0 -0.0 -1.0 0.0 0.0 1:-0.21333333651224773 2:0.08000000119209294 3:0.21333333651224762 4:0.1333333353201548 
-1.0 -1.0 -0.0 1.0 0.0 1:-0.08000000119209294 2:0.16000000238418577 3:-0.1333333353201548 4:0.4000000059604645 
-0.0 -0.47996071211669245 -1.0 0.5307854452940618 0.5439165950825278 1:-0.21333333651224773 2:0.05333333412806196 3:0.18666666944821675 4:0.10666666825612381 
-1.0 -0.0 -0.0 0.0 0.0 1:-0.1333333353201548 2:0.05333333412806196 3:-0.10666666825612381 4:0.3466666718324025 
-1.0 -1.0 -0.0 0.04764193564635155 0.0 1:-0.1333333353201548 2:0.18666666944821675 3:-0.1333333353201548 4:0.3466666718324025 
-0.0 -1.0 -1.0 0.0 0.27781156991666167 1:-0.21333333651224773 2:0.02666666706403098 3:-0.02666666706403098 4:0.1333333353201548 
-1.0 -1.0 -1.0 1.0 1.0 1:-0.08000000119209294 2:0.10666666825612381 3:0.2400000035762786 4:0.1333333353201548 
-1.0 -1.0 -1.0 1.0 1.0 1:-0.08000000119209294 2:0.16000000238418577 3:-0.10666666825612381 4:0.29333333770434056 
-0.0 -0.0 -1.0 0.0 0.0 1:-0.1333333353201548 2:0.05333333412806196 3:-0.02666666706403098 4:0.3466666718324025 
-0.0 -0.0 -1.0 1.0 0.0 1:-0.21333333651224773 2:0.05333333412806196 3:0.3466666718324025 4:0.10666666825612381 
-1.0 -0.0 -1.0 0.0 0.0 1:-0.10666666825612381 2:0.02666666706403098 3:-0.10666666825612381 4:0.3466666718324025 
-0.8507015380494494 -0.0 -1.0 1.0 0.0 1:-0.10666666825612381 2:0.02666666706403098 3:0.0 4:0.29333333770434056 
-0.0 -0.0 -1.0 1.0 0.0 1:-0.18666666944821675 2:0.08000000119209294 3:0.2666666706403096 4:0.16000000238418577 
-1.0 -0.0 -0.0 0.0 0.0 1:-0.10666666825612381 2:0.05333333412806196 3:-0.10666666825612381 4:0.42666667302449546 
-1.0 -1.0 -1.0 1.0 1.0 1:-0.16000000238418577 2:0.0 3:-0.02666666706403098 4:0.10666666825612381 
-0.0 -0.0 -1.0 0.0 0.0 1:-0.2400000035762787 2:0.05333333412806196 3:0.32000000476837154 4:0.32000000476837154 
-1.0 -0.7134236064542692 -0.0 0.0 0.0 1:-0.16000000238418577 2:0.16000000238418577 3:-0.10666666825612381 4:0.45333334008852644 
-1.0 -1.0 -1.0 1.0 1.0 1:-0.1333333353201548 2:0.16000000238418577 3:-0.10666666825612381 4:0.16000000238418577 
-1.0 -1.0 -1.0 0.0 0.0 1:-0.2400000035762787 2:0.1333333353201548 3:0.02666666706403098 4:0.16000000238418577 
-0.0 -0.0 -0.8007357225291455 0.0 0.0 1:-0.2400000035762787 2:0.08000000119209294 3:0.21333333651224762 4:0.3733333388964335 
-1.0 -1.0 -1.0 1.0 1.0 1:-0.08000000119209294 2:0.10666666825612381 3:-0.08000000119209294 4:0.10666666825612381 
-0.0 -0.0 -1.0 0.0 0.0 1:-0.1333333353201548 2:-0.05333333412806196 3:0.18666666944821675 4:0.3733333388964335 
-1.0 -1.0 -1.0 1.0 1.0 1:-0.1333333353201548 2:0.16000000238418577 3:-0.08000000119209294 4:0.10666666825612381 
-0.0 -0.0 -1.0 1.0 0.0 1:-0.10666666825612381 2:0.08000000119209294 3:0.2666666706403096 4:0.3733333388964335 
-0.0 -0.0 -1.0 -0.0 1.0 1:0.32000000476837154 2:0.05333333412806196 3:0.0 4:0.02666666706403098 
-0.0 -0.0 -1.0 -0.0 0.0 1:0.3466666718324025 2:0.05333333412806196 3:0.2400000035762786 4:-0.02666666706403098 
-1.0 -1.0 -0.0 -0.0 1.0 1:0.21333333651224762 2:0.45333334008852644 3:-0.05333333412806196 4:0.02666666706403098 
-0.0 -1.0 -1.0 -1.0 0.0 1:0.08000000119209294 2:0.08000000119209294 3:0.2400000035762786 4:0.10666666825612381 
-0.0 -0.0 -0.0 -0.0 1.0 1:0.3733333388964335 2:0.05333333412806196 3:-0.02666666706403098 4:-0.02666666706403098 
-1.0 -1.0 -0.643983247356388 -0.0 1.0 1:0.21333333651224762 2:0.1333333353201548 3:-0.08000000119209294 4:0.02666666706403098 
-0.0 -0.0 -1.0 -1.0 0.0 1:0.05333333412806196 2:0.05333333412806196 3:0.3466666718324025 4:0.08000000119209294 
-0.0 -0.6461957049331075 -0.0 -0.0 1.0 1:0.3733333388964335 2:0.08000000119209294 3:0.0 4:-0.05333333412806196 
-1.0 -1.0 -0.0 -0.0 1.0 1:0.16000000238418577 2:0.42666667302449546 3:-0.08000000119209294 4:0.02666666706403098 
-1.0 -1.0 -0.0 -0.0 1.0 1:0.3466666718324025 2:0.10666666825612381 3:-0.08000000119209294 4:0.02666666706403098 
-0.0 -0.0 -1.0 -0.33557794498144483 0.0 1:0.18666666944821675 2:0.10666666825612381 3:0.18666666944821675 4:0.08000000119209294 
-1.0 -1.0 -1.0 -0.0 1.0 1:0.18666666944821675 2:0.08000000119209294 3:0.0 4:0.02666666706403098 
-1.0 -1.0 -0.0 -1.0 1.0 1:0.08000000119209294 2:0.3466666718324025 3:-0.08000000119209294 4:0.0 
-1.0 -1.0 -1.0 -1.0 0.0 1:0.05333333412806196 2:0.18666666944821675 3:0.2666666706403096 4:0.18666666944821675 
-0.0 -0.0 -0.46166578959403654 -0.0 0.0 1:0.4000000059604645 2:0.08000000119209294 3:0.0 4:0.21333333651224762 
-1.0 -1.0 -1.0 -1.0 0.0 1:0.2666666706403096 2:0.08000000119209294 3:-0.10666666825612381 4:0.21333333651224762 
-0.526837482994719 -0.0 -0.0 -0.0 0.0 1:0.3733333388964335 2:0.05333333412806196 3:-0.10666666825612381 4:0.2400000035762786 
-1.0 -1.0 -1.0 -0.24284943595896855 1.0 1:0.1333333353201548 2:0.21333333651224762 3:0.18666666944821675 4:-0.02666666706403098 
-1.0 -1.0 -1.0 -1.0 0.0 1:0.08000000119209294 2:0.05333333412806196 3:-0.05333333412806196 4:0.2400000035762786 
-1.0 -1.0 -1.0 -1.0 1.0 1:0.08000000119209294 2:0.2400000035762786 3:-0.1333333353201548 4:0.18666666944821675 
-1.0 -1.0 -1.0 -1.0 1.0 1:0.05333333412806196 2:0.08000000119209294 3:0.16000000238418577 4:0.05333333412806196 
-1.0 -1.0 -0.0 -0.0 0.13023534862207703 1:0.2666666706403096 2:0.2666666706403096 3:-0.1333333353201548 4:0.18666666944821675 
-1.0 -1.0 -1.0 -1.0 0.0 1:0.08000000119209294 2:0.10666666825612381 3:0.05333333412806196 4:0.21333333651224762 
-1.0 -1.0 -1.0 -0.0 1.0 1:0.18666666944821675 2:0.10666666825612381 3:-0.05333333412806196 4:0.02666666706403098 
-1.0 -1.0 -0.0 -0.0 0.0 1:0.5066666742165884 2:0.2666666706403096 3:-0.1333333353201548 4:0.18666666944821675 
-1.0 -1.0 -1.0 -1.0 0.0 1:0.05333333412806196 2:0.05333333412806196 3:-0.05333333412806196 4:0.2666666706403096 
-1.0 -1.0 -1.0 -1.0 1.0 1:0.08000000119209294 2:0.08000000119209294 3:-0.1333333353201548 4:-0.02666666706403098 
-1.0 -1.0 -1.0 -1.0 1.0 1:0.10666666825612381 2:0.3733333388964335 3:0.08000000119209294 4:0.16000000238418577 
-0.7036111136363314 -1.0 -0.0 -0.0 0.0 1:0.4800000071525574 2:0.32000000476837154 3:-0.05333333412806196 4:0.21333333651224762 
-1.0 -1.0 -0.0 -0.0 -0.8129220701425353 1:0.08000000119209294 2:0.3466666718324025 3:-0.02666666706403098 4:-0.18666666944821675 
-1.0 -1.0 -1.0 -1.0 -1.0 1:0.16000000238418577 2:0.10666666825612381 3:-0.16000000238418577 4:-0.10666666825612381 
-0.0 -1.0 -1.0 -0.0 -1.0 1:0.10666666825612381 2:0.10666666825612381 3:-0.05333333412806196 4:-0.2400000035762787 
-0.0 -1.0 -0.0 -0.0 -0.0 1:0.10666666825612381 2:0.3733333388964335 3:-0.1333333353201548 4:-0.29333333770434067 
-1.0 -1.0 -0.0 -0.0 -0.0 1:0.08000000119209294 2:0.32000000476837154 3:-0.16000000238418577 4:-0.21333333651224773 
-0.0 -0.0 -0.0 -0.0 -1.0 1:0.18666666944821675 2:0.1333333353201548 3:-0.05333333412806196 4:-0.2400000035762787 
-1.0 -1.0 -1.0 -1.0 -1.0 1:0.16000000238418577 2:0.18666666944821675 3:-0.05333333412806196 4:0.0 
-1.0 -1.0 -1.0 -1.0 -1.0 1:0.10666666825612381 2:0.18666666944821675 3:-0.05333333412806196 4:-0.10666666825612381 
-0.0 -1.0 -0.0 -0.0 -0.0 1:0.18666666944821675 2:0.3733333388964335 3:-0.10666666825612381 4:-0.2666666706403097 
-1.0 -1.0 -1.0 -1.0 -1.0 1:0.05333333412806196 2:0.18666666944821675 3:0.02666666706403098 4:-0.05333333412806196 
-1.0 -1.0 -0.6941391999049826 -0.9723021377920843 -1.0 1:0.05333333412806196 2:0.32000000476837154 3:0.0 4:-0.18666666944821675 
-1.0 -1.0 -0.0 -0.0 -1.0 1:0.21333333651224762 2:0.45333334008852644 3:-0.08000000119209294 4:-0.16000000238418577 
-1.0 -1.0 -1.0 -0.8494260272071051 -1.0 1:0.08000000119209294 2:0.16000000238418577 3:-0.05333333412806196 4:-0.21333333651224773 
-1.0 -1.0 -0.0 -0.0 -0.0 1:0.16000000238418577 2:0.5333333412806194 3:-0.16000000238418577 4:-0.21333333651224773 
-0.0 -1.0 -0.0 -0.0 -0.0 1:0.10666666825612381 2:0.4000000059604645 3:-0.08000000119209294 4:-0.2666666706403097 
-1.0 -1.0 -0.0 -0.0 -1.0 1:0.08000000119209294 2:0.2666666706403096 3:-0.08000000119209294 4:-0.18666666944821675 
-1.0 -1.0 -0.0 -0.0 -0.3173132784795418 1:0.08000000119209294 2:0.16000000238418577 3:-0.10666666825612381 4:-0.21333333651224773 
-1.0 -1.0 -1.0 -1.0 -1.0 1:0.1333333353201548 2:0.32000000476837154 3:-0.18666666944821675 4:0.0 
-1.0 -1.0 -0.0 -0.0 -1.0 1:0.10666666825612381 2:0.29333333770434056 3:-0.08000000119209294 4:-0.1333333353201548 
-0.0 -1.0 -0.0 -0.0 -0.0 1:0.08000000119209294 2:0.2400000035762786 3:-0.10666666825612381 4:-0.2666666706403097 
-1.0 -1.0 -0.0 -0.0 -1.0 1:0.16000000238418577 2:0.2400000035762786 3:-0.18666666944821675 4:-0.08000000119209294 
-1.0 -1.0 -0.0 -0.0 -1.0 1:0.1333333353201548 2:0.32000000476837154 3:-0.10666666825612381 4:-0.10666666825612381 
-1.0 -1.0 -0.0 -0.0 -0.0 1:0.08000000119209294 2:0.21333333651224762 3:-0.10666666825612381 4:-0.2400000035762787 
