svm_type c_svc
kernel_type rbf
gamma 1.0
nr_class 6
total_sv 156
rho 0.02292335033416748 -0.025860697031021118 -0.00841432809829712 -0.057133108377456665 0.06335282325744629 -0.03769150376319885 0.047021123518603894 0.03653631707490241 0.0635802149772644 -0.016275227069854736 0.11546885967254639 -8.940733499832235E-4 -3.674503825445332E-4 0.005684222734412245 -0.040107876062393355
label 0 1 2 3 4 5
nr_sv 30 30 22 24 28 22
SV
1.0 0.0 0.0 0.0 1.0 1:0.08032586479371673 2:0.29782501820452456 3:-0.18869256647285537 4:0.0977593599132317 
1.0 0.0 0.0 0.0 0.0 1:0.06426167581330133 2:0.3182587641293051 3:-0.14029035112923038 4:0.15820378672562008 
1.0 0.0 0.0 0.0 1.0 1:0.06740921750107431 2:0.3026076255649677 3:-0.17089774859196016 4:0.1105648966524243 
1.0 0.0 0.0 0.0 1.0 1:0.05392771223413928 2:0.29008641530796764 3:-0.17405145364088936 4:0.10978527053296083 
1.0 0.0 0.0 0.0 0.0 1:0.06447533407874984 2:0.3120687804746689 3:-0.18190770406986378 4:0.15716079009930262 
1.0 0.0 0.0 0.4842843718369674 1.0 1:0.0569136783812102 2:0.28698861599921943 3:-0.1455265371175688 4:0.12039567647384253 
1.0 0.0 0.0 0.0 0.0 1:0.04553101756624012 2:0.27759095532099143 3:-0.1537545094701227 4:0.14431638457306162 
1.0 0.0 1.0 0.0 0.0 1:0.057758096238797685 2:0.2754061075811731 3:-0.17100353568788162 4:0.20078620457427743 
1.0 0.0 1.0 0.0 0.0 1:0.035539870017857855 2:0.29499150108423344 3:-0.13680292068142186 4:0.14996243374511198 
1.0 0.0 1.0 0.0 0.0 1:0.039098556704512455 2:0.26799324789080914 3:-0.15744230167688 4:0.16796991666537975 
1.0 0.0 0.0 0.0 0.08204556499600117 1:0.047278836575928684 2:0.2623946052054311 3:-0.1686204963099619 4:0.11304266028767462 
1.0 0.0 0.0 1.0 0.0 1:0.05382306487779609 2:0.26858234733558883 3:-0.14556308015613473 4:0.12776745172151505 
1.0 1.0 0.5990160482344109 1.0 1.0 1:0.059058449774515576 2:0.23086589515289435 3:-0.15911712530158717 4:0.11288063493094269 
1.0 0.0 0.0 1.0 1.0 1:0.052580095106275704 2:0.2273593844390196 3:-0.16996036440732432 4:0.0689711869942885 
1.0 0.0 0.0 0.0 1.0 1:0.04739741045724144 2:0.25655416992598457 3:-0.1626349599459641 4:0.03917695487249917 
1.0 0.0 0.0 1.0 1.0 1:0.09125125729821193 2:0.2745766681720285 3:-0.16210796849604447 4:0.03134156482630768 
1.0 0.0 0.0 1.0 1.0 1:0.10500100527283407 2:0.26232800276882573 3:-0.17768637433086099 4:0.019739919327932953 
1.0 0.0 0.0 1.0 1.0 1:0.08933413839135385 2:0.2791957357629853 3:-0.1741491001131824 4:0.06379193403985017 
1.0 0.0 0.0 0.0 1.0 1:0.07146731126798833 2:0.2820232560634397 3:-0.17131928065527124 4:0.07236688061678531 
1.0 1.0 0.0 1.0 1.0 1:0.07850718252568378 2:0.2629519391194761 3:-0.13172209189848527 4:0.0578935047811161 
1.0 0.0 0.0 1.0 1.0 1:0.0681390795652489 2:0.25836155206923217 3:-0.14804434061359772 4:0.09431480407682247 
1.0 0.0 0.0 0.0 0.0 1:0.05451126376315185 2:0.27602257587807655 3:-0.16110213968701592 4:0.12878517710887505 
1.0 1.0 1.0 1.0 0.0 1:0.06494234460739368 2:0.25815139468522474 3:-0.12354837853248601 4:0.16702814244150388 
1.0 0.29128389375095964 0.0 1.0 0.0 1:0.0732872093093111 2:0.2598544498705624 3:-0.13617203667353484 4:0.13895584745962508 
1.0 0.0 1.0 1.0 0.0 1:0.05862976747873183 2:0.261216894021604 3:-0.14627096320691713 4:0.14316467843555414 
1.0 0.0 1.0 1.0 0.0 1:0.05757048081004479 2:0.2623068493438563 3:-0.14901677103862043 4:0.1518650766262024 
1.0 1.0 0.0 1.0 0.0 1:0.07805638510696444 2:0.2578454801942407 3:-0.12988008367323778 4:0.14815872836823296 
1.0 1.0 1.0 1.0 0.0 1:0.06777844150412793 2:0.2436097180530008 3:-0.1412374008218794 4:0.1665269833995654 
1.0 1.0 1.0 1.0 0.0 1:0.05955608661905276 2:0.23222110833612208 3:-0.15032325454389361 4:0.17588825401874997 
1.0 1.0 1.0 1.0 0.0 1:0.0689782029443079 2:0.24977688761854888 3:-0.1255919370535885 4:0.14604393663464565 
-1.0 1.0 0.0 1.0 1.0 1:0.0883427199473018 2:0.27614068107697043 3:-0.049268338389867994 4:-0.019732889487424354 
-1.0 0.0 0.0 1.0 1.0 1:0.07067525814129616 2:0.29024501529653723 3:-0.06608030799385778 4:-0.026452566815758916 
-1.0 0.0 0.0 0.0 1.0 1:0.06187388495183932 2:0.33886077468837894 3:-0.06353101315658027 4:-0.04249475822775173 
-1.0 0.0 0.0 0.0 1.0 1:0.049499418420602015 2:0.31908911651092287 3:-0.07749112734834518 4:-0.03932921941422329 
-1.0 0.0 0.0 0.0 1.0 1:0.039599693693191274 2:0.3192712912372915 3:-0.08332614183894183 4:-0.05279649294290478 
-1.0 0.0 0.0 0.6146017104776849 1.0 1:0.07967934380162289 2:0.30875047523234667 3:-0.07199436333205855 4:-0.004904352615907048 
-1.0 0.0 0.0 0.0 1.0 1:0.06374357984733414 2:0.289667172995034 3:-0.08426207704760658 4:0.0014098097932147002 
-1.0 0.0 0.0 0.0 1.0 1:0.05099491753870233 2:0.2850670918864493 3:-0.08340966546441886 4:-0.020205394835348334 
-1.0 1.0 0.0 1.0 1.0 1:0.07812919482509939 2:0.27072037945941196 3:-0.06672777730993706 4:0.031835544656812376 
-1.0 0.0 0.3804117251011944 1.0 1.0 1:0.0571700585820637 2:0.27524296331119547 3:-0.07471554172779615 4:0.020135122484863377 
-1.0 0.0 0.0 0.0 1.0 1:0.04040273195387045 2:0.32152765442186326 3:-0.07043910492645877 4:0.010774774903268391 
-1.0 0.0 0.0 0.0 1.0 1:0.03232219126936575 2:0.299888806120737 3:-0.056351293889616016 4:-0.012713497141797925 
-1.0 0.0 0.0 1.0 1.0 1:0.07385773495869985 2:0.30391104403240754 3:-0.04508104020530013 4:-0.010170798862614405 
-1.0 0.0 0.0 0.0 1.0 1:0.05908619223961231 2:0.296462171508566 3:-0.06273149412289691 4:-0.029469967159053367 
-1.0 1.0 1.0 1.0 0.0 1:0.05260228840479164 2:0.29050307243805906 3:-0.07151852732289321 4:0.08842400611723988 
-1.0 0.0 1.0 1.0 0.0 1:0.07941516143678595 2:0.29640245820518385 3:-0.06788148911482983 4:0.09207253811275207 
-1.0 1.0 1.0 1.0 0.0 1:0.07419879637057136 2:0.28512196813474433 3:-0.08097185736331958 4:0.13232469497895594 
-1.0 1.0 1.0 1.0 0.0 1:0.05935903781659946 2:0.28143090881497645 3:-0.09144415244648807 4:0.1165264235754343 
-1.0 1.0 1.0 1.0 0.0 1:0.04215389737482822 2:0.273144728024588 3:-0.0731553225252023 4:0.07722113984266676 
-1.0 1.0 1.0 1.0 0.0 1:0.044389784681032385 2:0.28784911649387146 3:-0.08519092484496071 4:0.10444357863548148 
-1.0 0.0 1.0 1.0 0.0 1:0.0408451612027243 2:0.29961262741193084 3:-0.08948607347255333 4:0.10488819655395398 
-1.0 0.0 1.0 1.0 0.0 1:0.08067612935314605 2:0.2823567693724849 3:-0.0715888589237551 4:0.057243890567034605 
-1.0 0.0 0.0 1.0 0.41547932087171374 1:0.06454090356659192 2:0.28988541641243315 3:-0.08393775413868931 4:0.045795112513283054 
-1.0 0.0 0.0 0.0 1.0 1:0.051632722896319816 2:0.2799083338784738 3:-0.08848353694701705 4:0.02063608985610854 
-1.0 0.0 0.0 1.0 1.0 1:0.09463951235332912 2:0.2772600012364932 3:-0.0761201629968069 4:0.01650887189369543 
-1.0 0.8309476661587213 0.0 1.0 1.0 1:0.07571160990851766 2:0.26980800171462915 3:-0.06622946382376171 4:-0.008126236102618312 
-1.0 0.0 0.0 1.0 1.0 1:0.07656928816448272 2:0.28517973572474586 3:-0.079650238111308 4:0.030832344973490966 
-1.0 0.0 0.0 1.0 1.0 1:0.10925543122855452 2:0.3028104563492193 3:-0.07438685731760353 4:0.013999209162598336 
-1.0 0.0 0.0 0.0 1.0 1:0.08207101157977126 2:0.3222483662645079 3:-0.06484281927030655 4:5.327005092879977E-4 
-1.0 0.0 0.0 0.0 1.0 1:0.06565680926757855 2:0.311132027142216 3:-0.07854092247713718 4:0.03242616087695882 
-1.0 -1.0 1.0 1.0 1.0 1:0.025139653325410904 2:-0.004763557837384469 3:0.12427494683613971 4:0.14957440502952435 
-1.0 -1.0 1.0 1.0 1.0 1:0.0254450373674735 2:-0.003810904622689515 3:0.11008749331734302 4:0.15699240353926502 
-1.0 -1.0 1.0 1.0 1.0 1:0.004356856341408699 2:0.00761749511839227 3:0.12006960381818077 4:0.14692765103484862 
-0.0 -0.0 0.0 1.0 0.0 1:0.04081790420291531 2:-0.004572364903303372 3:0.1653878804449206 4:0.14420885610290768 
-0.0 -0.0 0.0 1.0 0.0 1:0.037987702218785446 2:-0.030324145498579202 3:0.14297733102056454 4:0.15270028242785594 
-0.0 -0.0 0.02008414788701006 1.0 0.0 1:0.009057125421413681 2:-0.013592821508386255 3:0.15171510891457418 4:0.13816037559630523 
-0.0 -0.0 0.0 1.0 0.0 1:0.03924550227161261 2:-0.021540871759732294 3:0.16937197172158824 4:0.1478615705640487 
-0.0 -0.0 0.0 1.0 0.8625539260662455 1:0.04206305678343614 2:-0.02256602650557782 3:0.14616434188691974 4:0.13962262478129517 
-1.0 -0.8309476661587213 1.0 1.0 0.0 1:0.006983872860562013 2:-0.007386195270944751 3:0.14893146653217104 4:0.13836477027753058 
-0.0 -0.0 1.0 0.0 0.0 1:-0.02650423709765093 2:0.008804924576526152 3:0.17246620851778327 4:0.1395360944764359 
-1.0 -0.0 1.0 1.0 0.0 1:1.299319357531692E-4 2:-0.003622721547699048 3:0.14863964440828892 4:0.14896220521064762 
-0.0 -1.0 1.0 1.0 0.0 1:-0.005229386314026585 2:-0.002898177447732797 3:0.15091171534627423 4:0.13516976839638373 
-0.0 -0.0 1.0 0.0 0.0 1:-0.0361835037978544 2:0.01901478763652642 3:0.17406270211938735 4:0.14546914670013678 
-1.0 -1.0 1.0 1.0 0.40923479833828075 1:-0.012946805552863982 2:0.0205451633407141 3:0.15525016416276904 4:0.14837531749263422 
-0.29128389375095964 -0.0 1.0 0.0 0.0 1:-0.010357444638629087 2:0.005769464967324001 3:0.15620013173502112 4:0.1560335873030636 
-0.0 -0.0 1.0 0.0 0.0 1:-0.034952621581381904 2:0.004615572029855408 3:0.19429343790590892 4:0.14082687081881962 
-0.0 -1.0 1.0 0.0 0.0 1:-0.01196209774072321 2:0.014359124146882563 3:0.1714347512730875 4:0.13399483051846883 
-0.0 -0.0 1.0 0.6443245374227673 0.0 1:-0.004236344933337466 2:0.00615396606779417 3:0.1638144682339695 4:0.14452919809502662 
-0.0 -0.0 1.0 0.0 0.0 1:-0.041580165976699335 2:0.012802665106283695 3:0.18492139337851432 4:0.14117479571418767 
-0.0 -0.0 1.0 0.0 0.0 1:-0.0031446392534830725 2:-3.3962777808860256E-4 3:0.16528302581320076 4:0.14688520342584532 
-0.0 -0.0 1.0 0.0 0.0 1:-0.02918237845224958 2:-0.005605035632330835 3:0.14822642089852212 4:0.14417482980622365 
-1.0 -1.0 1.0 1.0 1.0 1:0.0033207642905925816 2:0.01684930513731986 3:0.15058113719481148 4:0.13133986408799325 
-0.0 -0.0 -1.0 0.0 0.0 1:-0.15674500488969234 2:0.08502824172557266 3:0.04644753767984844 4:0.2586082555012801 
-1.0 -1.0 -0.0 0.6246094304786252 0.0 1:-0.14139694426355431 2:0.10535468221646382 3:0.015826572115913318 4:0.28688487356796477 
-0.0 -0.0 -1.0 0.0 0.0 1:-0.1587602530536405 2:0.08769420537434769 3:0.05279476582655118 4:0.26147358290565204 
-1.0 -0.33059599870255235 -0.0 0.0 0.0 1:-0.14300845560289832 2:0.10215513258183795 3:0.01556974330747607 4:0.2891784226688743 
-1.0 -0.0 -0.0 0.0 0.0 1:-0.14107345143092098 2:0.0870575946242308 3:0.0017892694318538682 4:0.3060092329569055 
-0.0 -0.0 -1.0 0.0 0.0 1:-0.1555253334003176 2:0.08031278688412324 3:0.038764506257076836 4:0.26614098222151905 
-1.0 -1.0 -0.0 0.0 0.0 1:-0.14753623860192178 2:0.09726680891840578 3:-0.018923874988546863 4:0.295130141542987 
-1.0 -1.0 -0.0 0.0 0.0 1:-0.16069563549640853 2:0.0831468048912527 3:-0.020472430733842084 4:0.26277083608777674 
-1.0 -1.0 -1.0 1.0 1.0 1:-0.14455652644339756 2:0.08785077237388117 3:0.03162199864732074 4:0.23688336449842295 
-1.0 -1.0 -1.0 1.0 1.0 1:-0.13164523051076116 2:0.10228060818596385 3:0.003964284797796536 4:0.24817335116690908 
-1.0 -1.0 -1.0 1.0 1.0 1:-0.13198285132005172 2:0.09249115779873984 3:-0.0021619028058298406 4:0.26787200639717224 
-0.0 -0.8230331342923172 -1.0 1.0 1.0 1:-0.14825294365238462 2:0.08465959532987488 3:0.0676037919421667 4:0.23563094809465301 
-0.0 -0.0 -1.0 1.0 0.0 1:-0.1399356901128166 2:0.07306101182382763 3:0.03274970635467178 4:0.25783808873123304 
-0.0 -0.0 -1.0 1.0 0.0 1:-0.13328188652979622 2:0.06378214397119442 3:0.026199765859750257 4:0.26493713768478533 
-0.0 -0.0 -1.0 0.38625444988491114 0.0 1:-0.14395884230390188 2:0.06702571516943079 3:0.07429314316918878 4:0.2439497122160339 
-0.0 -0.0 -1.0 0.0 0.0 1:-0.13650040785628847 2:0.06428723909404954 3:0.03810118264044615 4:0.28049310260435223 
-0.0 -0.0 -1.0 1.0 0.0 1:-0.14120032661589854 2:0.05142979167456463 3:0.025147613101860866 4:0.2457278168144419 
-0.0 -0.0 -1.0 0.0 0.0 1:-0.1609602616152056 2:0.051810500157696726 3:0.08411809026300532 4:0.2605822541099658 
-0.0 -0.0 -0.02008414788701006 0.0 0.0 1:-0.1607682097714448 2:0.07344840032773226 3:0.04596113904458532 4:0.29913247081526917 
-0.5990160482344109 -0.2267825921063249 -0.0 0.0 0.0 1:-0.1722249885676559 2:0.09927364349813361 3:0.017681795667479294 4:0.24904478247731676 
-1.0 -1.0 -1.0 0.0 0.287279818680366 1:-0.1646239935029129 2:0.09766846568624798 3:0.029449682784733033 4:0.24045532866520558 
-0.0 -0.0 -1.0 0.0 0.0 1:-0.17042602346973312 2:0.05610781798326725 3:0.05191446412444167 4:0.28829141230082134 
-0.0 -0.0 -1.0 0.0 0.0 1:-0.16300748584396807 2:0.07688625485182543 3:0.025531571075895654 4:0.2519664635122052 
-0.0 -0.0 -1.0 0.0 0.0 1:-0.164058125162446 2:0.06947387007610573 3:0.06967353960681189 4:0.29565853863912395 
-0.0 -0.0 -1.0 -0.0 0.0 1:0.24307940060523525 2:0.09889242206448412 3:0.1302939824599627 4:0.0022944828449664723 
-0.0 -0.0 -1.0 -0.0 0.0 1:0.2637955859240262 2:0.0897811625683611 3:0.15223384280292684 4:-0.0034973923676198115 
-0.0 -0.0 -0.0 -0.0 1.0 1:0.2537035316641487 2:0.1624887478345406 3:0.11112201905705299 4:0.002535183033415378 
-0.0 -0.0 -1.0 -0.0 0.0 1:0.21896369714660824 2:0.1459914124025533 3:0.1368969693012122 4:0.023360957586596398 
-0.0 -0.0 -0.0 -0.0 1.0 1:0.2498371297717521 2:0.12746009429909566 3:0.10418476727751635 4:0.01335559330940106 
-0.0 -0.0 -0.0 -0.0 1.0 1:0.24253644614344316 2:0.1286347304324622 3:0.06734819212515719 4:0.016017780703045048 
-0.0 -0.0 -1.0 -0.0 0.0 1:0.20469607260823186 2:0.11357455021909535 3:0.1232115206657064 4:0.028814140641992503 
-0.0 -0.0 -1.0 -0.0 0.7123933029352243 1:0.2384233839030805 2:0.10685966867753494 3:0.09856932025490261 4:0.012384714841645272 
-1.0 -1.0 -0.0 -0.0 1.0 1:0.22273874985125652 2:0.17082089724536476 3:0.06285555217281813 4:0.015241097591473518 
-0.0 -1.0 -0.0 -0.0 1.0 1:0.24752429151574606 2:0.15799007356861527 3:0.03428449075803541 4:0.017526207546320394 
-0.0 -1.0 -0.0 -0.0 1.0 1:0.2353527805322546 2:0.14772540383212773 3:0.06476089286848674 4:0.030020952488805097 
-0.0 -1.0 -0.0 -0.0 1.0 1:0.2256155651916174 2:0.13418033286930053 3:0.051808723441277627 4:0.029350095877591853 
-1.0 -1.0 -0.0 -0.0 1.0 1:0.19649246555393918 2:0.17667758145522838 3:0.025446990428826477 4:0.02348007935503582 
-1.0 -1.0 -1.0 -1.0 1.0 1:0.16786064755048535 2:0.17867539847595992 3:0.07369091251662196 4:0.056117387933366514 
-0.4842843718369674 -1.0 -1.0 -0.0 0.0 1:0.21428851063778853 2:0.15894032267252967 3:0.05895273274161872 4:0.08756057182840316 
-1.0 -0.0 -0.0 -0.0 0.0 1:0.22476414139717815 2:0.14315226024695404 3:0.0258288564664656 4:0.11271512178495302 
-1.0 -0.828725924589092 -1.0 -1.0 0.0 1:0.20019924209569795 2:0.12492062542558857 3:0.018771041651376108 4:0.13216347600388845 
-1.0 -1.0 -1.0 -1.0 0.0 1:0.17615939439281758 2:0.14793650059823937 3:-0.011649833138253629 4:0.1430641144760817 
-1.0 -0.7858757858885929 -0.0 -0.0 0.0 1:0.24226084951667537 2:0.1503492009247357 3:-0.03598653326503942 4:0.16245129204949105 
-1.0 -1.0 -1.0 -1.0 0.0 1:0.2044753467465883 2:0.13627936109275862 3:0.0032107735456754494 4:0.14062770064288466 
-1.0 -1.0 -0.0 -0.0 0.0 1:0.21691361146052102 2:0.16235682286638853 3:-0.024098048085194224 4:0.14983549435597265 
-1.0 -1.0 -1.0 -1.0 0.0 1:0.18953088949815178 2:0.15121879198147892 3:-0.00861177169418681 4:0.16253506274487706 
-1.0 -1.0 -1.0 -1.0 0.0 1:0.18895804548938733 2:0.14230836725542517 3:-0.017556084161872265 4:0.1353613836667038 
-1.0 -1.0 -0.0 -0.0 0.0 1:0.25249977114803346 2:0.167180027898429 3:-0.04071153436189989 4:0.14562244080899034 
-1.0 -1.0 -0.0 -0.010863880363536364 0.0 1:0.21266648377886144 2:0.14441068916426059 3:-0.043235894312925294 4:0.16983128675409065 
-1.0 -1.0 -1.0 -1.0 1.0 1:0.18613318727635286 2:0.13152855157703436 3:-0.06125538250428941 4:0.13053169601245418 
-1.0 -1.0 -0.6443245374227673 -1.0 1.0 1:0.17023988347799812 2:0.17988950902359735 3:-0.03300430577512892 4:0.1364253572846903 
-1.0 -1.0 -0.0 -0.0 0.0 1:0.23219190819871272 2:0.20791160816613052 3:-0.03707011144478356 4:0.1518069531266767 
-1.0 -1.0 -0.2717887244045262 -0.6041558039423377 -1.0 1:0.13597582428476385 2:0.2937051878255792 3:-0.06755303132376 4:-0.12881425246412637 
-1.0 -1.0 -1.0 -1.0 -1.0 1:0.14078036561250884 2:0.256299775102081 3:-0.08604129307600494 4:-0.12438500692670595 
-1.0 -1.0 -1.0 -1.0 -1.0 1:0.1339578935915663 2:0.22637432685182968 3:-0.0794999577158052 4:-0.14750709983861432 
-1.0 -1.0 -0.0 -0.0 -1.0 1:0.12849978546125007 2:0.2557653918774887 3:-0.09026636312168868 4:-0.17667161571231915 
-1.0 -1.0 -0.0 -0.0 -0.0 1:0.11879998435401873 2:0.26861210818005543 3:-0.10421286703964083 4:-0.1840038421410931 
-0.0 -1.0 -0.0 -0.0 -0.0 1:0.13237318189139513 2:0.24155663163670105 3:-0.0940370650263298 4:-0.19520295934329102 
-0.08204556499600117 -1.0 -0.0 -0.0 -1.0 1:0.13049508568281631 2:0.2335436785637497 3:-0.10233360645424683 4:-0.18015725352188683 
-1.0 -1.0 -1.0 -0.0 -1.0 1:0.12572941041378372 2:0.22416829290436224 3:-0.0925335688848542 4:-0.16545916180911358 
-0.0 -1.0 -0.0 -0.0 -1.0 1:0.13791684877308164 2:0.2540012691851463 3:-0.09536018564022619 4:-0.18570064124095564 
-1.0 -1.0 -1.0 -0.6831240147380283 -1.0 1:0.12100015779020878 2:0.2405343587477453 3:-0.07095483233380617 4:-0.15922719851323985 
-1.0 -1.0 -1.0 -1.0 -1.0 1:0.10746679917420032 2:0.2564274807689513 3:-0.05676387228066959 4:-0.16471509021997477 
-0.0 -1.0 -0.0 -0.0 -1.0 1:0.12864010051745578 2:0.2851419775016175 3:-0.04541110110831226 4:-0.19043873227631292 
-0.0 -1.0 -0.0 -0.0 -0.0 1:0.14557874458074438 2:0.3187802437919074 3:-0.052328879844454224 4:-0.18435098742484635 
-0.0 -1.0 -0.0 -0.0 -1.0 1:0.13246299745691992 2:0.2870241992727032 3:-0.05252977067737519 4:-0.1901474565555824 
-0.0 -0.41547932087171374 -0.0 -0.0 -0.7123933029352244 1:0.13797039802477518 2:0.2616193618213176 3:-0.05802381636373355 4:-0.20545129821211627 
-0.0 -1.0 -0.0 -0.0 -0.0 1:0.14237631868284728 2:0.3159621550760363 3:-0.07841905257808568 4:-0.20702770579564267 
-1.0 -1.0 -0.0 -0.0 -0.0 1:0.1287662984095167 2:0.26833822981424604 3:-0.13153063946904964 4:-0.19007413882688529 
-1.0 -1.0 -0.0 -0.0 -0.0 1:0.12434637238487556 2:0.2733372513854364 3:-0.12122451182773586 4:-0.17872597814103997 
-0.0 -1.0 -0.0 -0.0 -0.0 1:0.11547709815407226 2:0.2666698018294338 3:-0.11831294311595875 4:-0.19631411662551845 
-1.0 -1.0 -0.0 -0.0 -0.0 1:0.12438167899511288 2:0.26133584218178707 3:-0.1319836883747616 4:-0.17305129355184856 
-1.0 -1.0 -0.0 -0.0 -0.0 1:0.12617201025948033 2:0.2730686746949027 3:-0.1269202843528473 4:-0.15977436849745785 
-1.0 -1.0 -0.0 -0.0 -0.0 1:0.11693760844811918 2:0.26112160706110954 3:-0.12286956113443082 4:-0.175819495509545 
